digraph Tree {
node [shape=box] ;
0 [label="  (0, 10)	1 <= 0.5\ngini = 0.7\nsamples = 100\nvalue = [30, 40, 10, 20]"] ;
1 [label="  (0, 5)	1 <= 0.5\ngini = 0.6993\nsamples = 97\nvalue = [27, 40, 10, 20]"] ;
0 -> 1 [labeldistance=2.5, labelangle=45, headlabel="True"] ;
2 [label="  (0, 16)	1 <= 0.5\ngini = 0.6971\nsamples = 94\nvalue = [24, 40, 10, 20]"] ;
1 -> 2 ;
3 [label="  (0, 7)	1 <= 0.5\ngini = 0.6932\nsamples = 91\nvalue = [21, 40, 10, 20]"] ;
2 -> 3 ;
4 [label="  (0, 30)	1 <= 0.5\ngini = 0.687\nsamples = 88\nvalue = [18, 40, 10, 20]"] ;
3 -> 4 ;
5 [label="  (0, 27)	1 <= 0.5\ngini = 0.6782\nsamples = 85\nvalue = [15, 40, 10, 20]"] ;
4 -> 5 ;
6 [label="  (0, 32)	1 <= 0.5\ngini = 0.6663\nsamples = 82\nvalue = [12, 40, 10, 20]"] ;
5 -> 6 ;
7 [label="  (0, 8)	1 <= 0.5\ngini = 0.6505\nsamples = 79\nvalue = [9, 40, 10, 20]"] ;
6 -> 7 ;
8 [label="  (0, 20)	1 <= 0.5\ngini = 0.6302\nsamples = 76\nvalue = [6, 40, 10, 20]"] ;
7 -> 8 ;
9 [label="  (0, 11)	1 <= 0.5\ngini = 0.6042\nsamples = 73\nvalue = [3, 40, 10, 20]"] ;
8 -> 9 ;
10 [label="  (0, 38)	1 <= 0.5\ngini = 0.5714\nsamples = 70\nvalue = [0, 40, 10, 20]"] ;
9 -> 10 ;
11 [label="  (0, 20)	1 <= 0.5\ngini = 0.5623\nsamples = 68\nvalue = [0, 40, 10, 18]"] ;
10 -> 11 ;
12 [label="  (0, 38)	1 <= 0.5\ngini = 0.551\nsamples = 66\nvalue = [0, 40, 10, 16]"] ;
11 -> 12 ;
13 [label="  (0, 9)	1 <= 0.5\ngini = 0.5371\nsamples = 64\nvalue = [0, 40, 10, 14]"] ;
12 -> 13 ;
14 [label="  (0, 11)	1 <= 0.5\ngini = 0.5203\nsamples = 62\nvalue = [0, 40, 10, 12]"] ;
13 -> 14 ;
15 [label="  (0, 5)	1 <= 0.5\ngini = 0.5\nsamples = 60\nvalue = [0, 40, 10, 10]"] ;
14 -> 15 ;
16 [label="  (0, 21)	1 <= 0.5\ngini = 0.4756\nsamples = 58\nvalue = [0, 40, 10, 8]"] ;
15 -> 16 ;
17 [label="  (0, 5)	1 <= 0.5\ngini = 0.4464\nsamples = 56\nvalue = [0, 40, 10, 6]"] ;
16 -> 17 ;
18 [label="  (0, 7)	1 <= 0.5\ngini = 0.4115\nsamples = 54\nvalue = [0, 40, 10, 4]"] ;
17 -> 18 ;
19 [label="  (0, 31)	1 <= 0.5\ngini = 0.3698\nsamples = 52\nvalue = [0, 40, 10, 2]"] ;
18 -> 19 ;
20 [label="  (0, 35)	1 <= 0.5\ngini = 0.32\nsamples = 50\nvalue = [0, 40, 10, 0]"] ;
19 -> 20 ;
21 [label="  (0, 7)	1 <= 0.5\ngini = 0.2999\nsamples = 49\nvalue = [0, 40, 9, 0]"] ;
20 -> 21 ;
22 [label="  (0, 14)	1 <= 0.5\ngini = 0.2778\nsamples = 48\nvalue = [0, 40, 8, 0]"] ;
21 -> 22 ;
23 [label="  (0, 30)	1 <= 0.5\ngini = 0.2535\nsamples = 47\nvalue = [0, 40, 7, 0]"] ;
22 -> 23 ;
24 [label="  (0, 17)	1 <= 0.5\ngini = 0.2268\nsamples = 46\nvalue = [0, 40, 6, 0]"] ;
23 -> 24 ;
25 [label="  (0, 27)	1 <= 0.5\ngini = 0.1975\nsamples = 45\nvalue = [0, 40, 5, 0]"] ;
24 -> 25 ;
26 [label="  (0, 11)	1 <= 0.5\ngini = 0.1653\nsamples = 44\nvalue = [0, 40, 4, 0]"] ;
25 -> 26 ;
27 [label="  (0, 1)	1 <= 0.5\ngini = 0.1298\nsamples = 43\nvalue = [0, 40, 3, 0]"] ;
26 -> 27 ;
28 [label="  (0, 20)	1 <= 0.5\ngini = 0.0907\nsamples = 42\nvalue = [0, 40, 2, 0]"] ;
27 -> 28 ;
29 [label="  (0, 8)	1 <= 0.5\ngini = 0.0476\nsamples = 41\nvalue = [0, 40, 1, 0]"] ;
28 -> 29 ;
30 [label="gini = 0.0\nsamples = 40\nvalue = [0, 40, 0, 0]"] ;
29 -> 30 ;
31 [label="gini = 0.0\nsamples = 1\nvalue = [0, 0, 1, 0]"] ;
29 -> 31 ;
32 [label="gini = 0.0\nsamples = 1\nvalue = [0, 0, 1, 0]"] ;
28 -> 32 ;
33 [label="gini = 0.0\nsamples = 1\nvalue = [0, 0, 1, 0]"] ;
27 -> 33 ;
34 [label="gini = 0.0\nsamples = 1\nvalue = [0, 0, 1, 0]"] ;
26 -> 34 ;
35 [label="gini = 0.0\nsamples = 1\nvalue = [0, 0, 1, 0]"] ;
25 -> 35 ;
36 [label="gini = 0.0\nsamples = 1\nvalue = [0, 0, 1, 0]"] ;
24 -> 36 ;
37 [label="gini = 0.0\nsamples = 1\nvalue = [0, 0, 1, 0]"] ;
23 -> 37 ;
38 [label="gini = 0.0\nsamples = 1\nvalue = [0, 0, 1, 0]"] ;
22 -> 38 ;
39 [label="gini = 0.0\nsamples = 1\nvalue = [0, 0, 1, 0]"] ;
21 -> 39 ;
40 [label="gini = 0.0\nsamples = 1\nvalue = [0, 0, 1, 0]"] ;
20 -> 40 ;
41 [label="gini = 0.0\nsamples = 2\nvalue = [0, 0, 0, 2]"] ;
19 -> 41 ;
42 [label="gini = 0.0\nsamples = 2\nvalue = [0, 0, 0, 2]"] ;
18 -> 42 ;
43 [label="gini = 0.0\nsamples = 2\nvalue = [0, 0, 0, 2]"] ;
17 -> 43 ;
44 [label="gini = 0.0\nsamples = 2\nvalue = [0, 0, 0, 2]"] ;
16 -> 44 ;
45 [label="gini = 0.0\nsamples = 2\nvalue = [0, 0, 0, 2]"] ;
15 -> 45 ;
46 [label="gini = 0.0\nsamples = 2\nvalue = [0, 0, 0, 2]"] ;
14 -> 46 ;
47 [label="gini = 0.0\nsamples = 2\nvalue = [0, 0, 0, 2]"] ;
13 -> 47 ;
48 [label="gini = 0.0\nsamples = 2\nvalue = [0, 0, 0, 2]"] ;
12 -> 48 ;
49 [label="gini = 0.0\nsamples = 2\nvalue = [0, 0, 0, 2]"] ;
11 -> 49 ;
50 [label="gini = 0.0\nsamples = 2\nvalue = [0, 0, 0, 2]"] ;
10 -> 50 ;
51 [label="gini = 0.0\nsamples = 3\nvalue = [3, 0, 0, 0]"] ;
9 -> 51 ;
52 [label="gini = 0.0\nsamples = 3\nvalue = [3, 0, 0, 0]"] ;
8 -> 52 ;
53 [label="gini = 0.0\nsamples = 3\nvalue = [3, 0, 0, 0]"] ;
7 -> 53 ;
54 [label="gini = 0.0\nsamples = 3\nvalue = [3, 0, 0, 0]"] ;
6 -> 54 ;
55 [label="gini = 0.0\nsamples = 3\nvalue = [3, 0, 0, 0]"] ;
5 -> 55 ;
56 [label="gini = 0.0\nsamples = 3\nvalue = [3, 0, 0, 0]"] ;
4 -> 56 ;
57 [label="gini = 0.0\nsamples = 3\nvalue = [3, 0, 0, 0]"] ;
3 -> 57 ;
58 [label="gini = 0.0\nsamples = 3\nvalue = [3, 0, 0, 0]"] ;
2 -> 58 ;
59 [label="gini = 0.0\nsamples = 3\nvalue = [3, 0, 0, 0]"] ;
1 -> 59 ;
60 [label="gini = 0.0\nsamples = 3\nvalue = [3, 0, 0, 0]"] ;
0 -> 60 [labeldistance=2.5, labelangle=-45, headlabel="False"] ;
}